Weights: [ 0.00000000e+00  0.00000000e+00  0.00000000e+00  0.00000000e+00
  0.00000000e+00  0.00000000e+00  0.00000000e+00  0.00000000e+00
  0.00000000e+00  0.00000000e+00  0.00000000e+00  0.00000000e+00
  0.00000000e+00  0.00000000e+00  0.00000000e+00  0.00000000e+00
  0.00000000e+00  0.00000000e+00  0.00000000e+00  0.00000000e+00
  0.00000000e+00  0.00000000e+00  0.00000000e+00  0.00000000e+00
  0.00000000e+00  0.00000000e+00  0.00000000e+00  0.00000000e+00
  0.00000000e+00  0.00000000e+00  0.00000000e+00  0.00000000e+00
  0.00000000e+00  0.00000000e+00  0.00000000e+00  0.00000000e+00
  0.00000000e+00  0.00000000e+00  0.00000000e+00  0.00000000e+00
  0.00000000e+00  0.00000000e+00  0.00000000e+00 -7.30741070e-02
 -1.35965757e-01 -3.59380854e-03  0.00000000e+00  0.00000000e+00
  0.00000000e+00  0.00000000e+00  0.00000000e+00  0.00000000e+00
  0.00000000e+00  0.00000000e+00  0.00000000e+00  0.00000000e+00
  0.00000000e+00  0.00000000e+00  0.00000000e+00  0.00000000e+00
  0.00000000e+00  0.00000000e+00  0.00000000e+00  0.00000000e+00
 -8.99073522e-02 -1.93836952e-01 -1.69401361e-01 -2.94819441e-01
 -1.14411848e-01 -1.16817733e-01  5.33747455e-02  2.56648023e-01
  6.23827219e-01  6.82211530e-01  2.00382237e-01  0.00000000e+00
  0.00000000e+00  0.00000000e+00  0.00000000e+00  0.00000000e+00
  0.00000000e+00  0.00000000e+00  0.00000000e+00  0.00000000e+00
  0.00000000e+00  0.00000000e+00  0.00000000e+00  0.00000000e+00
  0.00000000e+00  0.00000000e+00  0.00000000e+00  0.00000000e+00
 -1.84942788e-02 -6.43738273e-03 -1.52228795e-01 -7.55460090e-01
 -3.19814183e-01 -3.84506929e-01 -6.36269091e-01  4.14916968e-01
  4.62028442e-02  5.88598804e-02  7.40101144e-01  3.82769101e-01
  2.19158281e-01  0.00000000e+00  0.00000000e+00  0.00000000e+00
  0.00000000e+00  0.00000000e+00  0.00000000e+00  0.00000000e+00
  0.00000000e+00  0.00000000e+00  0.00000000e+00  0.00000000e+00
  6.66974767e-03  4.98269385e-02  4.80415861e-02 -4.74940736e-02
  3.56359106e-01  2.90521193e-01 -2.17952354e-01 -5.41851417e-01
 -4.24010572e-01  1.73465523e-01 -7.74531147e-02  5.17076407e-03
 -9.14326793e-02 -1.83038063e-01  2.46794655e-01  1.19567531e-01
  3.41181767e-01  5.13464736e-02  6.16918957e-02  2.92225429e-03
  0.00000000e+00  0.00000000e+00  0.00000000e+00  0.00000000e+00
  0.00000000e+00  0.00000000e+00  0.00000000e+00 -2.75651387e-03
 -3.10944923e-02  1.16703604e-02 -6.66612540e-02 -2.86452077e-01
 -3.27627571e-02 -1.47377572e-02 -4.80699776e-01 -4.42687801e-01
 -1.62817796e-01  3.35047966e-01  2.54429125e-02 -1.75025696e-01
 -3.46368765e-01  1.22387124e-01 -2.09179820e-01  2.86025664e-01
  4.04108383e-02  2.05534599e-01  2.30218047e-01  2.89983229e-01
  3.47977548e-01  0.00000000e+00  0.00000000e+00  0.00000000e+00
  0.00000000e+00  0.00000000e+00  0.00000000e+00 -5.54059288e-02
 -6.58959022e-02 -3.71301893e-02 -2.05784322e-01 -2.09671614e-01
 -2.51166025e-01  2.20472317e-01 -4.35914885e-01  5.15113233e-01
 -2.22647760e-01 -3.06806341e-01  1.09208715e-02 -3.79034094e-01
  1.16910398e-01 -4.71450958e-03 -6.57949446e-02 -1.79560023e-01
  5.86162572e-02  2.11974021e-01  2.48291361e-01  3.44490095e-01
  3.44793036e-01 -3.04685182e-03  0.00000000e+00  0.00000000e+00
  0.00000000e+00  0.00000000e+00  0.00000000e+00 -5.01685524e-02
 -7.00154523e-02 -1.18817477e-01 -2.07475343e-01 -5.39854803e-02
  7.73574800e-02 -2.53840134e-01 -1.50186283e-01 -3.68688142e-01
 -1.61082113e-01  1.11676497e-01 -6.73411413e-02 -1.50504145e-01
 -1.66521216e-01  3.23151929e-01 -4.01618273e-01  3.57802006e-02
  1.59645727e-02 -1.61767630e-01  2.06611462e-01  3.59448947e-01
  2.84663783e-01 -2.62659640e-03  0.00000000e+00  0.00000000e+00
  0.00000000e+00  0.00000000e+00  0.00000000e+00 -1.48851749e-02
 -6.14702593e-02 -2.08940323e-01 -7.47776971e-02  4.62369256e-03
  3.29681439e-02 -1.44333551e-01  1.80403039e-01  1.89353670e-01
  6.67586630e-01  1.42336682e-01  8.39647006e-02  1.70240013e-01
  1.07351303e-01 -9.56576910e-02  4.76582204e-01 -2.11715308e-03
 -2.25574574e-01 -2.82951680e-01  2.36962981e-01  1.83377785e-01
  6.13939145e-02  0.00000000e+00  0.00000000e+00  0.00000000e+00
  0.00000000e+00  0.00000000e+00  0.00000000e+00  0.00000000e+00
 -1.01979327e-01  1.28045985e-01  3.50433933e-01 -3.92010135e-02
 -7.36747660e-02 -6.18777762e-02  1.16304383e-01  1.43063186e-01
 -6.60289281e-01 -4.63274171e-01  5.41492278e-01  2.83521691e-01
  3.85705984e-02 -1.45544945e-01  1.64131569e-01  1.58410143e-01
 -5.55808884e-02 -3.54447823e-01  1.08003537e-01  4.50945214e-02
  2.53285882e-02  0.00000000e+00  0.00000000e+00  0.00000000e+00
  0.00000000e+00  0.00000000e+00  0.00000000e+00  0.00000000e+00
 -4.15658556e-01 -2.18571218e-01 -5.36746238e-01 -2.85179857e-01
 -1.68799086e-01  3.37211101e-01  1.42543215e-01  1.74967273e-02
 -2.10432346e-01  6.06390545e-01  5.19458465e-01 -1.20761388e-02
  4.83733771e-01  2.16599595e-01  5.46414616e-02  1.28976989e-02
  3.23186036e-01 -3.39899759e-01 -3.16286722e-03 -4.10514365e-03
 -1.46421588e-02 -4.50527963e-03  0.00000000e+00  0.00000000e+00
  0.00000000e+00  0.00000000e+00  0.00000000e+00  0.00000000e+00
 -3.02565934e-01 -4.57711087e-01 -5.55226943e-01 -5.21932095e-01
 -2.91465840e-01  2.16168839e-01 -3.14132710e-01 -2.37298342e-01
  4.19241103e-02  7.48175821e-01  4.98143701e-01  3.79144522e-01
  1.06693631e-01 -1.39723429e-01  3.28353996e-01 -5.46384707e-02
 -6.88684197e-02 -2.53003959e-01 -1.81845604e-02 -1.07654159e-02
 -1.46421588e-02 -4.50527963e-03  0.00000000e+00  0.00000000e+00
  0.00000000e+00  0.00000000e+00  0.00000000e+00  0.00000000e+00
 -1.01801844e-01 -1.37286927e-01 -1.77175242e-01 -1.70376059e-01
 -2.37316527e-01  2.28471753e-01 -1.41885624e-01 -1.04324174e-01
  5.64442816e-01  1.03956500e-01  3.99429606e-01 -6.82387696e-02
 -3.28182520e-02  1.71327061e-01  2.18995221e-01 -4.97369062e-01
 -1.61601258e-01 -2.26428870e-01 -5.60492244e-02 -3.81034651e-02
 -4.55954110e-02 -2.88132443e-02 -2.88132443e-02  0.00000000e+00
  0.00000000e+00  0.00000000e+00  0.00000000e+00  0.00000000e+00
 -1.12871464e-03 -8.16700651e-02 -1.52956224e-01 -9.09314611e-02
 -1.21413833e-02  1.53909168e-01 -1.30765999e-01  2.18122054e-01
  3.37872961e-01 -2.00849320e-01  3.93308847e-01  7.31347213e-03
  1.89720036e-01 -2.71536100e-01 -2.90152968e-01 -5.21963077e-03
 -9.94821258e-02 -2.58488044e-01 -1.72606445e-01 -1.51774632e-01
 -1.37355932e-01 -9.03944921e-02 -5.53666264e-02  0.00000000e+00
  0.00000000e+00  0.00000000e+00  0.00000000e+00  0.00000000e+00
 -2.51139008e-02 -1.26895973e-01 -1.51002738e-01 -2.35886391e-01
 -3.03342116e-01 -2.41859478e-01 -2.89527864e-01  3.25027933e-01
  1.89546259e-01  1.59668981e-01  3.44416805e-01  7.77633259e-02
  6.95904480e-02 -5.71232988e-01 -2.43605068e-01  9.12648043e-02
  1.46724484e-01 -8.64723509e-02 -4.74908664e-02 -7.87406701e-02
 -2.16426040e-02  0.00000000e+00  0.00000000e+00  0.00000000e+00
  0.00000000e+00  0.00000000e+00  0.00000000e+00  0.00000000e+00
 -4.18440862e-02 -1.34865007e-01 -1.36918592e-01 -2.04079185e-01
 -5.24420450e-01 -5.09979279e-01 -5.53538160e-01  2.34570054e-01
  1.34951527e-01  2.43623430e-01 -2.62074749e-02  5.81096607e-01
 -3.35588260e-02  3.55820950e-01  3.41031284e-01 -6.66518047e-02
  3.90620910e-01 -4.11992438e-02 -8.34858388e-02 -1.79030589e-01
 -9.60150551e-02 -3.73046429e-03 -6.32848917e-03 -5.37921579e-02
  0.00000000e+00  0.00000000e+00  0.00000000e+00  0.00000000e+00
 -5.71002936e-02 -1.16607334e-01 -2.12256884e-01 -2.09537147e-01
 -5.74320187e-01 -4.52825274e-01 -7.03292166e-01 -2.17016326e-01
 -9.81752400e-02 -1.18717431e-01  3.38204851e-01  3.65865221e-01
  2.23863506e-01 -1.50238358e-01 -2.99398948e-01 -2.96720256e-01
 -1.12384327e-01 -1.34826423e-01 -2.51122162e-01 -1.76962041e-01
 -3.70557835e-02 -8.73445574e-02 -1.36868891e-01 -1.10748560e-01
  0.00000000e+00  0.00000000e+00  0.00000000e+00  0.00000000e+00
 -9.43260378e-02 -1.99125393e-01 -2.61770186e-01 -2.71525887e-01
 -5.19230356e-01 -6.39008324e-01 -2.25091774e-01 -7.38958697e-02
 -4.52550667e-01 -4.81683752e-01 -1.78234278e-01  2.91407839e-01
  1.95182770e-01  2.23612518e-01 -5.26575317e-02 -5.69479926e-01
 -4.72667243e-01 -4.50517158e-01  2.85062777e-02  3.90241513e-03
 -2.69204510e-01 -2.00753908e-01 -3.75998260e-02 -5.69564025e-03
  0.00000000e+00  0.00000000e+00  0.00000000e+00  0.00000000e+00
 -1.44863375e-01 -3.64389814e-01 -2.16425550e-01 -6.52498744e-01
 -4.79943152e-01 -5.02669268e-02 -9.86011531e-01 -5.91300214e-01
 -8.32290510e-02 -2.66393359e-01 -5.14388187e-01 -4.67021435e-01
 -3.08806141e-01  9.39148773e-02 -1.55243452e-01 -8.58224719e-01
  1.66349000e-01  1.06073752e-02 -1.17698095e-01 -1.16062302e-01
 -2.76029604e-01 -8.61851401e-02  0.00000000e+00  0.00000000e+00
  0.00000000e+00  0.00000000e+00 -9.84227234e-03 -1.20378562e-01
 -3.24646209e-01 -4.81194188e-01  4.16683888e-02 -2.14009207e-03
  2.57383634e-01 -8.80715703e-02 -2.42066069e-01 -8.23011165e-03
 -6.63268631e-01  3.50357782e-01 -8.85960238e-02 -6.57112521e-02
  3.73980277e-01 -4.38422193e-01 -2.37966259e-01 -2.92634737e-01
 -3.26650434e-02 -1.08584476e-02 -2.83380167e-01 -2.89527156e-01
 -1.53626188e-01  7.07702000e-02  0.00000000e+00  0.00000000e+00
  0.00000000e+00  0.00000000e+00 -7.34384936e-02 -1.90788664e-01
 -1.90523234e-01 -2.74426821e-02  5.70535330e-01 -2.70642430e-02
  1.31021059e-02 -5.22963485e-02 -3.03204430e-01  1.85752965e-01
 -1.83841415e-01 -4.14661193e-01  1.05233115e-01  1.35232251e-01
  4.48157640e-01  5.28385520e-02 -2.47315042e-01 -7.51110682e-04
 -2.73246552e-01  9.26376607e-02 -4.43546311e-02  1.02168594e-01
 -3.16614422e-01 -2.37391419e-01  0.00000000e+00  0.00000000e+00
  0.00000000e+00  0.00000000e+00 -1.44605694e-01 -1.90788664e-01
 -3.01111552e-01  3.56509024e-02  9.04146195e-02  3.89898138e-01
  3.38171912e-01 -2.29332973e-01  3.66277959e-01  4.08236029e-01
  3.97649146e-02 -4.87694994e-01 -3.78487381e-01 -2.61773367e-01
  4.03770056e-01 -2.35167476e-01 -2.38515029e-01 -1.24378104e-01
  5.66583504e-03 -6.71122832e-02 -3.07032797e-02  4.78912811e-02
 -1.05366258e-02 -8.55326093e-03  0.00000000e+00  0.00000000e+00
  0.00000000e+00  0.00000000e+00 -1.89274468e-02 -9.34726072e-02
 -2.72385716e-01  1.43966808e-01 -2.10831799e-01 -1.92105833e-01
 -2.97271680e-02  2.99603859e-01 -3.43953068e-01 -7.23413307e-01
 -3.07623154e-01  2.99265831e-01  7.89414705e-03 -2.61699779e-02
 -5.89898973e-01 -3.45136637e-01  2.41206941e-01 -4.94428744e-02
  1.26514885e-01 -3.76202221e-01 -2.17467877e-01 -2.24925577e-01
  0.00000000e+00  0.00000000e+00  0.00000000e+00  0.00000000e+00
  0.00000000e+00  0.00000000e+00  0.00000000e+00 -6.98477222e-02
 -1.49487181e-01  3.05354476e-02  2.00470201e-02  1.93954235e-01
 -4.98965560e-01  1.01158467e-01  1.80098267e-01  3.10335649e-01
  1.90016476e-01  3.91455241e-03  1.53010707e-01 -1.31760695e-01
 -2.69761537e-01 -2.84858350e-02 -2.60023396e-01 -9.61858700e-03
 -4.04696567e-01 -2.62652779e-01 -1.17186879e-01 -9.73690224e-02
  0.00000000e+00  0.00000000e+00  0.00000000e+00  0.00000000e+00
  0.00000000e+00  0.00000000e+00  0.00000000e+00  0.00000000e+00
  0.00000000e+00  9.08082155e-02 -1.10252924e-01  5.82843174e-02
  1.61368160e-01 -2.18153768e-01 -6.60304729e-02  1.02288188e-01
 -1.88844825e-01 -1.05373895e-01 -1.99262255e-01 -2.73398696e-01
 -4.16711730e-01 -1.76728493e-01  3.47383434e-02 -1.38116195e-01
  0.00000000e+00  0.00000000e+00  0.00000000e+00  0.00000000e+00
  0.00000000e+00  0.00000000e+00  0.00000000e+00  0.00000000e+00
  0.00000000e+00  0.00000000e+00  0.00000000e+00  0.00000000e+00
  0.00000000e+00  0.00000000e+00  0.00000000e+00  0.00000000e+00
  0.00000000e+00  0.00000000e+00  0.00000000e+00  0.00000000e+00
  0.00000000e+00  0.00000000e+00  0.00000000e+00  0.00000000e+00
  0.00000000e+00  0.00000000e+00  0.00000000e+00  0.00000000e+00
  0.00000000e+00  0.00000000e+00  0.00000000e+00  0.00000000e+00
  0.00000000e+00  0.00000000e+00  0.00000000e+00  0.00000000e+00
  0.00000000e+00  0.00000000e+00  0.00000000e+00  0.00000000e+00
  0.00000000e+00  0.00000000e+00  0.00000000e+00  0.00000000e+00
  0.00000000e+00  0.00000000e+00  0.00000000e+00  0.00000000e+00
  0.00000000e+00  0.00000000e+00  0.00000000e+00  0.00000000e+00
  0.00000000e+00  0.00000000e+00  0.00000000e+00  0.00000000e+00
  0.00000000e+00  0.00000000e+00  0.00000000e+00  0.00000000e+00
  0.00000000e+00  0.00000000e+00  0.00000000e+00  0.00000000e+00
  0.00000000e+00  0.00000000e+00  0.00000000e+00  0.00000000e+00
  0.00000000e+00  0.00000000e+00  0.00000000e+00  0.00000000e+00
  0.00000000e+00  0.00000000e+00  0.00000000e+00  0.00000000e+00
  0.00000000e+00  0.00000000e+00  0.00000000e+00  0.00000000e+00
  0.00000000e+00  0.00000000e+00  0.00000000e+00  0.00000000e+00
  0.00000000e+00  0.00000000e+00  0.00000000e+00  0.00000000e+00
  0.00000000e+00  0.00000000e+00  0.00000000e+00  0.00000000e+00]
