Weights: [ 0.00000000e+00  0.00000000e+00  0.00000000e+00  0.00000000e+00
  0.00000000e+00  0.00000000e+00  0.00000000e+00  0.00000000e+00
  0.00000000e+00  0.00000000e+00  0.00000000e+00  0.00000000e+00
  0.00000000e+00  0.00000000e+00  0.00000000e+00  0.00000000e+00
  0.00000000e+00  0.00000000e+00  0.00000000e+00  0.00000000e+00
  0.00000000e+00  0.00000000e+00  0.00000000e+00  0.00000000e+00
  0.00000000e+00  0.00000000e+00  0.00000000e+00  0.00000000e+00
  0.00000000e+00  0.00000000e+00  0.00000000e+00  0.00000000e+00
  0.00000000e+00  0.00000000e+00  0.00000000e+00  0.00000000e+00
  0.00000000e+00  0.00000000e+00  0.00000000e+00  0.00000000e+00
  0.00000000e+00  0.00000000e+00  0.00000000e+00  7.30741070e-02
  1.35965757e-01  3.59380854e-03  0.00000000e+00  0.00000000e+00
  0.00000000e+00  0.00000000e+00  0.00000000e+00  0.00000000e+00
  0.00000000e+00  0.00000000e+00  0.00000000e+00  0.00000000e+00
  0.00000000e+00  0.00000000e+00  0.00000000e+00  0.00000000e+00
  0.00000000e+00  0.00000000e+00  0.00000000e+00  0.00000000e+00
  8.99073522e-02  1.93836952e-01  1.69401361e-01  2.94819441e-01
  1.14411848e-01  1.16817733e-01 -5.33747455e-02 -2.56648023e-01
 -6.23827219e-01 -6.82211530e-01 -2.00382237e-01  0.00000000e+00
  0.00000000e+00  0.00000000e+00  0.00000000e+00  0.00000000e+00
  0.00000000e+00  0.00000000e+00  0.00000000e+00  0.00000000e+00
  0.00000000e+00  0.00000000e+00  0.00000000e+00  0.00000000e+00
  0.00000000e+00  0.00000000e+00  0.00000000e+00  0.00000000e+00
  1.84942788e-02  6.43738273e-03  1.52228795e-01  7.55460090e-01
  3.19814183e-01  3.84506929e-01  6.36269091e-01 -4.14916968e-01
 -4.62028442e-02 -5.88598804e-02 -7.40101144e-01 -3.82769101e-01
 -2.19158281e-01  0.00000000e+00  0.00000000e+00  0.00000000e+00
  0.00000000e+00  0.00000000e+00  0.00000000e+00  0.00000000e+00
  0.00000000e+00  0.00000000e+00  0.00000000e+00  0.00000000e+00
 -6.66946690e-03 -4.98216038e-02 -4.80392998e-02  4.74940736e-02
 -3.56359106e-01 -2.90521193e-01  2.17952354e-01  5.41851417e-01
  4.24010572e-01 -1.73465523e-01  7.74531147e-02 -5.17076407e-03
  9.14326793e-02  1.83038063e-01 -2.46794655e-01 -1.19567531e-01
 -3.41181767e-01 -5.13464736e-02 -6.16918957e-02 -2.92225429e-03
  0.00000000e+00  0.00000000e+00  0.00000000e+00  0.00000000e+00
  0.00000000e+00  0.00000000e+00  0.00000000e+00  2.75651387e-03
  3.10982627e-02 -1.16602126e-02  6.66708002e-02  2.86454685e-01
  3.27630378e-02  1.47377572e-02  4.80699776e-01  4.42687801e-01
  1.62817796e-01 -3.35047966e-01 -2.54429125e-02  1.75025696e-01
  3.46368765e-01 -1.22387124e-01  2.09179820e-01 -2.86025664e-01
 -4.04108383e-02 -2.05534599e-01 -2.30218047e-01 -2.89983229e-01
 -3.47977548e-01  0.00000000e+00  0.00000000e+00  0.00000000e+00
  0.00000000e+00  0.00000000e+00  0.00000000e+00  5.54059288e-02
  6.59060902e-02  3.71403371e-02  2.05794470e-01  2.09681762e-01
  2.51172242e-01 -2.20470833e-01  4.35916369e-01 -5.15112310e-01
  2.22647760e-01  3.06806341e-01 -1.09208715e-02  3.79034094e-01
 -1.16910398e-01  4.71450958e-03  6.57949446e-02  1.79560023e-01
 -5.86162572e-02 -2.11974021e-01 -2.48291361e-01 -3.44490095e-01
 -3.44793036e-01  3.04685182e-03  0.00000000e+00  0.00000000e+00
  0.00000000e+00  0.00000000e+00  0.00000000e+00  5.01685524e-02
  7.00237149e-02  1.18826823e-01  2.07485491e-01  5.39956281e-02
 -7.73473322e-02  2.53850282e-01  1.50196431e-01  3.68697006e-01
  1.61086846e-01 -1.11669919e-01  6.73479600e-02  1.50510482e-01
  1.66522901e-01 -3.23151929e-01  4.01618273e-01 -3.57802006e-02
 -1.59645727e-02  1.61767630e-01 -2.06611462e-01 -3.59448947e-01
 -2.84663783e-01  2.62659640e-03  0.00000000e+00  0.00000000e+00
  0.00000000e+00  0.00000000e+00  0.00000000e+00  1.48851749e-02
  6.14702593e-02  2.08942008e-01  7.47813070e-02 -4.61595133e-03
 -3.29604027e-02  1.44341974e-01 -1.80392891e-01 -1.89343522e-01
 -6.67576482e-01 -1.42326534e-01 -8.39545126e-02 -1.70229865e-01
 -1.07341557e-01  9.56601377e-02 -4.76582204e-01  2.11715308e-03
  2.25574574e-01  2.82951680e-01 -2.36962981e-01 -1.83377785e-01
 -6.13939145e-02  0.00000000e+00  0.00000000e+00  0.00000000e+00
  0.00000000e+00  0.00000000e+00  0.00000000e+00  0.00000000e+00
  1.01979327e-01 -1.28045985e-01 -3.50433933e-01  3.92010135e-02
  7.36747660e-02  6.18784982e-02 -1.16301977e-01 -1.43060780e-01
  6.60291688e-01  4.63278904e-01 -5.41482090e-01 -2.83511544e-01
 -3.85604505e-02  1.45552566e-01 -1.64129323e-01 -1.58410143e-01
  5.55808884e-02  3.54447823e-01 -1.08003537e-01 -4.50945214e-02
 -2.53285882e-02  0.00000000e+00  0.00000000e+00  0.00000000e+00
  0.00000000e+00  0.00000000e+00  0.00000000e+00  0.00000000e+00
  4.15658556e-01  2.18571218e-01  5.36746238e-01  2.85179857e-01
  1.68799086e-01 -3.37211101e-01 -1.42543215e-01 -1.74967273e-02
  2.10432346e-01 -6.06390545e-01 -5.19456299e-01  1.20848427e-02
 -4.83723624e-01 -2.16589447e-01 -5.46317550e-02 -1.28940890e-02
 -3.23186036e-01  3.39899759e-01  3.16286722e-03  4.10514365e-03
  1.46421588e-02  4.50527963e-03  0.00000000e+00  0.00000000e+00
  0.00000000e+00  0.00000000e+00  0.00000000e+00  0.00000000e+00
  3.02565934e-01  4.57711087e-01  5.55226943e-01  5.21932095e-01
  2.91465840e-01 -2.16168839e-01  3.14132710e-01  2.37298342e-01
 -4.19241103e-02 -7.48175821e-01 -4.98143701e-01 -3.79140912e-01
 -1.06684927e-01  1.39733577e-01 -3.28343848e-01  5.46456905e-02
  6.88684197e-02  2.53003959e-01  1.81845604e-02  1.07654159e-02
  1.46421588e-02  4.50527963e-03  0.00000000e+00  0.00000000e+00
  0.00000000e+00  0.00000000e+00  0.00000000e+00  0.00000000e+00
  1.01801844e-01  1.37286927e-01  1.77175242e-01  1.70376059e-01
  2.37316527e-01 -2.28471753e-01  1.41885624e-01  1.04324174e-01
 -5.64442816e-01 -1.03956500e-01 -3.99429606e-01  6.82387696e-02
  3.28245493e-02 -1.71316913e-01 -2.18985074e-01  4.97376282e-01
  1.61601258e-01  2.26428870e-01  5.60492244e-02  3.81034651e-02
  4.55954110e-02  2.88132443e-02  2.88132443e-02  0.00000000e+00
  0.00000000e+00  0.00000000e+00  0.00000000e+00  0.00000000e+00
  1.12871464e-03  8.16700651e-02  1.52956224e-01  9.09314611e-02
  1.21413833e-02 -1.53909168e-01  1.30765999e-01 -2.18122054e-01
 -3.37872961e-01  2.00849320e-01 -3.93308847e-01 -7.31347213e-03
 -1.89716025e-01  2.71546248e-01  2.90161953e-01  5.22344122e-03
  9.94821258e-02  2.58488044e-01  1.72606445e-01  1.51774632e-01
  1.37355932e-01  9.03944921e-02  5.53666264e-02  0.00000000e+00
  0.00000000e+00  0.00000000e+00  0.00000000e+00  0.00000000e+00
  2.51139008e-02  1.26895973e-01  1.51002738e-01  2.35886391e-01
  3.03342116e-01  2.41859478e-01  2.89527864e-01 -3.25027933e-01
 -1.89546259e-01 -1.59668981e-01 -3.44414198e-01 -7.77551835e-02
 -6.95802600e-02  5.71243176e-01  2.43612608e-01 -9.12648043e-02
 -1.46724484e-01  8.64723509e-02  4.74908664e-02  7.87406701e-02
  2.16426040e-02  0.00000000e+00  0.00000000e+00  0.00000000e+00
  0.00000000e+00  0.00000000e+00  0.00000000e+00  0.00000000e+00
  4.18440862e-02  1.34865007e-01  1.36918592e-01  2.04079185e-01
  5.24420450e-01  5.09979279e-01  5.53538160e-01 -2.34570054e-01
 -1.34951527e-01 -2.43623430e-01  2.62084375e-02 -5.81086459e-01
  3.35689738e-02 -3.55810962e-01 -3.41028677e-01  6.66518047e-02
 -3.90620910e-01  4.11992438e-02  8.34858388e-02  1.79030589e-01
  9.60150551e-02  3.73046429e-03  6.32848917e-03  5.37921579e-02
  0.00000000e+00  0.00000000e+00  0.00000000e+00  0.00000000e+00
  5.71002936e-02  1.16607334e-01  2.12256884e-01  2.09537147e-01
  5.74320187e-01  4.52825274e-01  7.03292166e-01  2.17016326e-01
  9.81752400e-02  1.18717431e-01 -3.38198795e-01 -3.65855073e-01
 -2.23853559e-01  1.50243091e-01  2.99398948e-01  2.96720256e-01
  1.12384327e-01  1.34826423e-01  2.51122162e-01  1.76962041e-01
  3.70557835e-02  8.73445574e-02  1.36868891e-01  1.10748560e-01
  0.00000000e+00  0.00000000e+00  0.00000000e+00  0.00000000e+00
  9.43260378e-02  1.99125393e-01  2.61770186e-01  2.71525887e-01
  5.19230356e-01  6.39008324e-01  2.25091774e-01  7.38958697e-02
  4.52551510e-01  4.81688044e-01  1.78244466e-01 -2.91397691e-01
 -1.95174988e-01 -2.23612518e-01  5.26575317e-02  5.69479926e-01
  4.72667243e-01  4.50517158e-01 -2.85062777e-02 -3.90241513e-03
  2.69204510e-01  2.00753908e-01  3.75998260e-02  5.69564025e-03
  0.00000000e+00  0.00000000e+00  0.00000000e+00  0.00000000e+00
  1.44863375e-01  3.64389814e-01  2.16425550e-01  6.52498744e-01
  4.79943152e-01  5.02669268e-02  9.86011531e-01  5.91300214e-01
  8.32334631e-02  2.66403506e-01  5.14398375e-01  4.67029738e-01
  3.08807264e-01 -9.39148773e-02  1.55243452e-01  8.58224719e-01
 -1.66349000e-01 -1.06073752e-02  1.17698095e-01  1.16062302e-01
  2.76029604e-01  8.61851401e-02  0.00000000e+00  0.00000000e+00
  0.00000000e+00  0.00000000e+00  9.84227234e-03  1.20378562e-01
  3.24646209e-01  4.81194188e-01 -4.16683888e-02  2.14009207e-03
 -2.57383634e-01  8.80715703e-02  2.42066069e-01  8.23263858e-03
  6.63276974e-01 -3.50347635e-01  8.86062118e-02  6.57156241e-02
 -3.73980277e-01  4.38422193e-01  2.37968384e-01  2.92637665e-01
  3.26670088e-02  1.08609746e-02  2.83380448e-01  2.89527156e-01
  1.53626188e-01 -7.07702000e-02  0.00000000e+00  0.00000000e+00
  0.00000000e+00  0.00000000e+00  7.34384936e-02  1.90788664e-01
  1.90523234e-01  2.74426821e-02 -5.70535330e-01  2.70642430e-02
 -1.31021059e-02  5.22963485e-02  3.03204430e-01 -1.85744221e-01
  1.83851562e-01  4.14671341e-01 -1.05222927e-01 -1.35223186e-01
 -4.48149378e-01 -5.28302893e-02  2.47324668e-01  7.61258517e-04
  2.73256058e-01 -9.26277535e-02  4.43630542e-02 -1.02160332e-01
  3.16614422e-01  2.37391419e-01  0.00000000e+00  0.00000000e+00
  0.00000000e+00  0.00000000e+00  1.44605694e-01  1.90788664e-01
  3.01111552e-01 -3.56509024e-02 -9.04146195e-02 -3.89898138e-01
 -3.38171912e-01  2.29332973e-01 -3.66274990e-01 -4.08226082e-01
 -3.97547668e-02  4.87705142e-01  3.78497569e-01  2.61783515e-01
 -4.03759908e-01  2.35177624e-01  2.38525177e-01  1.24388252e-01
 -5.65568721e-03  6.71224311e-02  3.07117429e-02 -4.78812937e-02
  1.05366258e-02  8.55326093e-03  0.00000000e+00  0.00000000e+00
  0.00000000e+00  0.00000000e+00  1.89274468e-02  9.34726072e-02
  2.72385716e-01 -1.43966808e-01  2.10831799e-01  1.92105833e-01
  2.97271680e-02 -2.99603859e-01  3.43955033e-01  7.23422853e-01
  3.07633302e-01 -2.99255683e-01 -7.88395911e-03  2.61801257e-02
  5.89908519e-01  3.45143255e-01 -2.41197836e-01  4.94486503e-02
 -1.26510713e-01  3.76203184e-01  2.17468439e-01  2.24926499e-01
  0.00000000e+00  0.00000000e+00  0.00000000e+00  0.00000000e+00
  0.00000000e+00  0.00000000e+00  0.00000000e+00  6.98477222e-02
  1.49487181e-01 -3.05354476e-02 -2.00470201e-02 -1.93954235e-01
  4.98965560e-01 -1.01158467e-01 -1.80098267e-01 -3.10335248e-01
 -1.90016035e-01 -3.91411120e-03 -1.53010265e-01  1.31761136e-01
  2.69761939e-01  2.84859553e-02  2.60023757e-01  9.61858700e-03
  4.04696567e-01  2.62652779e-01  1.17186879e-01  9.73690224e-02
  0.00000000e+00  0.00000000e+00  0.00000000e+00  0.00000000e+00
  0.00000000e+00  0.00000000e+00  0.00000000e+00  0.00000000e+00
  0.00000000e+00 -9.08082155e-02  1.10252924e-01 -5.82843174e-02
 -1.61368160e-01  2.18153768e-01  6.60304729e-02 -1.02288188e-01
  1.88844825e-01  1.05373895e-01  1.99262255e-01  2.73398696e-01
  4.16711730e-01  1.76728493e-01 -3.47383434e-02  1.38116195e-01
  0.00000000e+00  0.00000000e+00  0.00000000e+00  0.00000000e+00
  0.00000000e+00  0.00000000e+00  0.00000000e+00  0.00000000e+00
  0.00000000e+00  0.00000000e+00  0.00000000e+00  0.00000000e+00
  0.00000000e+00  0.00000000e+00  0.00000000e+00  0.00000000e+00
  0.00000000e+00  0.00000000e+00  0.00000000e+00  0.00000000e+00
  0.00000000e+00  0.00000000e+00  0.00000000e+00  0.00000000e+00
  0.00000000e+00  0.00000000e+00  0.00000000e+00  0.00000000e+00
  0.00000000e+00  0.00000000e+00  0.00000000e+00  0.00000000e+00
  0.00000000e+00  0.00000000e+00  0.00000000e+00  0.00000000e+00
  0.00000000e+00  0.00000000e+00  0.00000000e+00  0.00000000e+00
  0.00000000e+00  0.00000000e+00  0.00000000e+00  0.00000000e+00
  0.00000000e+00  0.00000000e+00  0.00000000e+00  0.00000000e+00
  0.00000000e+00  0.00000000e+00  0.00000000e+00  0.00000000e+00
  0.00000000e+00  0.00000000e+00  0.00000000e+00  0.00000000e+00
  0.00000000e+00  0.00000000e+00  0.00000000e+00  0.00000000e+00
  0.00000000e+00  0.00000000e+00  0.00000000e+00  0.00000000e+00
  0.00000000e+00  0.00000000e+00  0.00000000e+00  0.00000000e+00
  0.00000000e+00  0.00000000e+00  0.00000000e+00  0.00000000e+00
  0.00000000e+00  0.00000000e+00  0.00000000e+00  0.00000000e+00
  0.00000000e+00  0.00000000e+00  0.00000000e+00  0.00000000e+00
  0.00000000e+00  0.00000000e+00  0.00000000e+00  0.00000000e+00
  0.00000000e+00  0.00000000e+00  0.00000000e+00  0.00000000e+00
  0.00000000e+00  0.00000000e+00  0.00000000e+00  0.00000000e+00]
